{
  "input_nodes": 5,
  "hidden_nodes": 8,
  "output_nodes": 2,
  "weights_ih": {
    "rows": 8,
    "cols": 5,
    "data": [
      [
        -0.9641595266651737,
        -0.5111254589956276,
        -0.6076609868998708,
        -0.15130462272907247,
        0.5546978592717648
      ],
      [
        0.9108637534926092,
        -0.2935839734568492,
        -0.9611193319088804,
        -0.9455168516255802,
        0.81170299385691
      ],
      [
        0.3304899356630946,
        0.8226893651441076,
        -0.912446430347905,
        0.04374583857126335,
        -0.15059070525936943
      ],
      [
        -0.3787727424926808,
        0.6126328061308439,
        0.3652564201935786,
        0.6154668190788888,
        -0.7209681610714923
      ],
      [
        0.027163176516228127,
        -0.2770996520935812,
        -0.06755151241140833,
        0.6812849678169375,
        0.6664335437846314
      ],
      [
        0.7333378085613189,
        0.08462964140150486,
        0.8557972284966979,
        -0.2048673626386126,
        0.12200347102122233
      ],
      [
        0.2171224136864187,
        0.391331885274188,
        0.48829504383605693,
        0.28698583690351365,
        0.6207289296706349
      ],
      [
        0.11858895396822777,
        0.8125192789675353,
        0.2530763105660396,
        -0.4006052498181328,
        0.22421077477056572
      ]
    ]
  },
  "weights_ho": {
    "rows": 2,
    "cols": 8,
    "data": [
      [
        -0.6733498953773589,
        -0.2521250440254943,
        0.5540636004687611,
        -0.922452759124039,
        0.7523633665288738,
        0.4732339520234383,
        -0.5562257046563198,
        0.22966690488286634
      ],
      [
        0.4417950439847056,
        -0.13775320585863104,
        0.37954378273823597,
        0.5811733867736231,
        0.12345234747855921,
        -0.19091066529462983,
        -0.10061823048450913,
        -0.7713924924166353
      ]
    ]
  },
  "bias_h": {
    "rows": 8,
    "cols": 1,
    "data": [
      [
        -0.33537482667764484
      ],
      [
        0.427099616208959
      ],
      [
        0.8169677026598445
      ],
      [
        -0.3944428300045564
      ],
      [
        -0.932869527771246
      ],
      [
        -0.24495193935314533
      ],
      [
        0.5784844213124676
      ],
      [
        0.3710334876618
      ]
    ]
  },
  "bias_o": {
    "rows": 2,
    "cols": 1,
    "data": [
      [
        -0.46087303400312685
      ],
      [
        -0.26620297495311496
      ]
    ]
  },
  "learning_rate": 0.1,
  "activation_function": {}
}
