{
  "input_nodes": 5,
  "hidden_nodes": 8,
  "output_nodes": 2,
  "weights_ih": {
    "rows": 8,
    "cols": 5,
    "data": [
      [
        -0.7013166475650984,
        1.0326027195085024,
        0.8966381287897898,
        -0.35966617967981485,
        0.9363011497849616
      ],
      [
        0.5396616168275166,
        -0.34104668183642084,
        0.6179695035312496,
        -0.813216056317388,
        0.8532461605822755
      ],
      [
        -0.3608242268867867,
        0.11340412332665632,
        -0.9603466561185265,
        0.21450692235911553,
        -0.46538548027753057
      ],
      [
        -0.26405662442382916,
        0.22297147395719488,
        -0.3556992965672511,
        -0.9094186134155235,
        0.33423014921896876
      ],
      [
        -0.7249723661053249,
        0.44457525568269596,
        0.5521890288693948,
        -0.3082398387672947,
        -0.8056741940272936
      ],
      [
        -0.7609160378768505,
        -0.9412605103078866,
        -0.7673153421902668,
        -0.8085437195352483,
        0.8449261344819043
      ],
      [
        -0.003942746864264324,
        -0.3161979527871246,
        0.3778323690582333,
        -0.5679366369076786,
        1.040852208833875
      ],
      [
        0.8471652647961834,
        0.08058390392321069,
        0.9833766019645727,
        0.7721875907854194,
        -0.8609559348747166
      ]
    ]
  },
  "weights_ho": {
    "rows": 2,
    "cols": 8,
    "data": [
      [
        -0.32598540977014623,
        -0.01983449111137467,
        -0.21585239488004448,
        -0.2192737962108448,
        -0.8340066776789606,
        0.1242833111887834,
        -0.2812807647378921,
        0.5143661744470065
      ],
      [
        -0.5178308306020853,
        -0.7877748599684193,
        0.19377809339822305,
        0.1434720540269362,
        0.6472873884906121,
        -0.614320359297107,
        0.7598263515896075,
        -0.30510656074260745
      ]
    ]
  },
  "bias_h": {
    "rows": 8,
    "cols": 1,
    "data": [
      [
        -0.5682645561534896
      ],
      [
        -0.9869467999850965
      ],
      [
        0.07774442988618989
      ],
      [
        -0.2106645810135089
      ],
      [
        -0.8621746408804783
      ],
      [
        0.5910895032640799
      ],
      [
        -0.7758334889020846
      ],
      [
        0.8948557666279263
      ]
    ]
  },
  "bias_o": {
    "rows": 2,
    "cols": 1,
    "data": [
      [
        0.542584657173931
      ],
      [
        0.9306705446227336
      ]
    ]
  },
  "learning_rate": 0.1,
  "activation_function": {}
}
